{
  "operator": "torch.nn.functional.linear",
  "timestamp": "2026-02-03T00:44:25.880495",
  "total_iterations": 12,
  "llm_generated_test_cases": 9,
  "successful_test_cases": 0,
  "results": [
    {
      "iteration": 1,
      "tensorflow_test_case": {
        "weight": {
          "shape": [
            64,
            64
          ],
          "dtype": "float32",
          "sample_values": [
            -0.674135684967041,
            0.09895892441272736,
            2.0020406246185303,
            -1.1865931749343872,
            -0.932757556438446,
            -0.9208818674087524,
            -1.189419150352478,
            0.8816532492637634,
            0.5776934623718262,
            1.2282841205596924
          ]
        },
        "bias": {
          "shape": [
            512
          ],
          "dtype": "float32",
          "sample_values": [
            -1.4408067464828491,
            1.0145012140274048,
            -1.5692614316940308,
            -1.744737982749939,
            -0.4367137551307678,
            0.309733510017395,
            0.5823376774787903,
            0.34638869762420654,
            1.4708325862884521,
            -2.0181989669799805
          ]
        },
        "api": "tf.keras.layers.Dense",
        "x": {
          "shape": [
            2708,
            64
          ],
          "dtype": "float32",
          "sample_values": [
            1.5058603286743164,
            1.1133569478988647,
            -0.8840822577476501,
            -0.3166092038154602,
            -0.7538241147994995,
            0.13073395192623138,
            0.6789206862449646,
            -0.16863872110843658,
            1.4218279123306274,
            0.10116744041442871
          ]
        }
      },
      "paddle_test_case": {
        "input": {
          "shape": [
            2708,
            64
          ],
          "dtype": "float32",
          "sample_values": [
            1.5058603286743164,
            1.1133569478988647,
            -0.8840822577476501,
            -0.3166092038154602,
            -0.7538241147994995,
            0.13073395192623138,
            0.6789206862449646,
            -0.16863872110843658,
            1.4218279123306274,
            0.10116744041442871
          ]
        },
        "weight": {
          "shape": [
            64,
            64
          ],
          "dtype": "float32",
          "sample_values": [
            -0.674135684967041,
            0.09895892441272736,
            2.0020406246185303,
            -1.1865931749343872,
            -0.932757556438446,
            -0.9208818674087524,
            -1.189419150352478,
            0.8816532492637634,
            0.5776934623718262,
            1.2282841205596924
          ]
        },
        "bias": {
          "shape": [
            512
          ],
          "dtype": "float32",
          "sample_values": [
            -1.4408067464828491,
            1.0145012140274048,
            -1.5692614316940308,
            -1.744737982749939,
            -0.4367137551307678,
            0.309733510017395,
            0.5823376774787903,
            0.34638869762420654,
            1.4708325862884521,
            -2.0181989669799805
          ]
        },
        "api": "paddle.nn.functional.linear"
      },
      "execution_result": {
        "tensorflow_api": "tf.keras.layers.Dense",
        "paddle_api": "paddle.nn.functional.linear",
        "tensorflow_success": false,
        "paddle_success": false,
        "results_match": false,
        "tensorflow_error": "Dense.__init__() missing 1 required positional argument: 'units'",
        "paddle_error": "linear() missing 1 required positional argument: 'x'",
        "comparison_error": null,
        "tensorflow_shape": null,
        "paddle_shape": null,
        "tensorflow_dtype": null,
        "paddle_dtype": null,
        "status": "both_failed",
        "tensorflow_traceback": "Traceback (most recent call last):\n  File \"D:\\graduate\\DFrameworkTest\\tf_pd_test\\llm_enhanced_compare.py\", line 736, in execute_test_case\n    tensorflow_instance = tensorflow_func(**init_kwargs)\nTypeError: Dense.__init__() missing 1 required positional argument: 'units'\n",
        "paddle_traceback": "Traceback (most recent call last):\n  File \"D:\\graduate\\DFrameworkTest\\tf_pd_test\\llm_enhanced_compare.py\", line 769, in execute_test_case\n    paddle_instance = paddle_func(**init_kwargs)\nTypeError: linear() missing 1 required positional argument: 'x'\n"
      },
      "llm_operation": {
        "operation": "repair",
        "reason": "TensorFlow Dense requires 'units' argument; Paddle linear requires 'x' as first arg, but test case misses required positional args and misaligns weight shape (should be [in_features, out_features], bias [out_features])"
      },
      "is_llm_generated": false,
      "case_number": 1
    },
    {
      "iteration": 2,
      "tensorflow_test_case": {
        "api": "tf.keras.layers.Dense",
        "units": 512,
        "use_bias": true,
        "activation": "linear",
        "weight": {
          "shape": [
            64,
            512
          ],
          "dtype": "float32",
          "sample_values": [
            -0.6167136430740356,
            0.0830201506614685,
            0.9956327080726624,
            -0.10812235623598099,
            -0.2632780075073242,
            -1.3355623483657837,
            -2.209843635559082,
            -0.3716989755630493,
            -0.21264615654945374,
            -0.9308899641036987
          ]
        },
        "bias": {
          "shape": [
            512
          ],
          "dtype": "float32",
          "sample_values": [
            0.8951904773712158,
            -0.05513988062739372,
            -2.365367889404297,
            0.1241789311170578,
            -0.43392854928970337,
            0.7238842844963074,
            0.22792650759220123,
            -0.7936980128288269,
            -1.7437527179718018,
            -1.8869411945343018
          ]
        },
        "x": {
          "shape": [
            2708,
            64
          ],
          "dtype": "float32",
          "sample_values": [
            -1.0145741701126099,
            2.3527612686157227,
            1.072020411491394,
            -1.4448939561843872,
            2.1168718338012695,
            -0.6637843251228333,
            -2.196408271789551,
            0.1269577294588089,
            0.11003870517015457,
            -0.006358210928738117
          ]
        }
      },
      "paddle_test_case": {
        "api": "paddle.nn.functional.linear",
        "x": {
          "shape": [
            2708,
            64
          ],
          "dtype": "float32",
          "sample_values": [
            -1.0145741701126099,
            2.3527612686157227,
            1.072020411491394,
            -1.4448939561843872,
            2.1168718338012695,
            -0.6637843251228333,
            -2.196408271789551,
            0.1269577294588089,
            0.11003870517015457,
            -0.006358210928738117
          ]
        },
        "weight": {
          "shape": [
            64,
            512
          ],
          "dtype": "float32",
          "sample_values": [
            -0.6167136430740356,
            0.0830201506614685,
            0.9956327080726624,
            -0.10812235623598099,
            -0.2632780075073242,
            -1.3355623483657837,
            -2.209843635559082,
            -0.3716989755630493,
            -0.21264615654945374,
            -0.9308899641036987
          ]
        },
        "bias": {
          "shape": [
            512
          ],
          "dtype": "float32",
          "sample_values": [
            0.8951904773712158,
            -0.05513988062739372,
            -2.365367889404297,
            0.1241789311170578,
            -0.43392854928970337,
            0.7238842844963074,
            0.22792650759220123,
            -0.7936980128288269,
            -1.7437527179718018,
            -1.8869411945343018
          ]
        }
      },
      "execution_result": {
        "tensorflow_api": "tf.keras.layers.Dense",
        "paddle_api": "paddle.nn.functional.linear",
        "tensorflow_success": false,
        "paddle_success": false,
        "results_match": false,
        "tensorflow_error": "Unrecognized keyword arguments passed to Dense: {'weight': <tf.Tensor: shape=(64, 512), dtype=float32, numpy=\narray([[-0.61671364,  0.08302015,  0.9956327 , ...,  0.616372  ,\n         0.7681561 , -1.8210287 ],\n       [-1.6508186 ,  1.1010376 ,  1.068401  , ...,  0.6465065 ,\n         0.37918448,  1.5293944 ],\n       [ 1.2059448 ,  0.09688105, -0.7534099 , ...,  2.0311985 ,\n         1.207478  , -0.2560113 ],\n       ...,\n       [ 2.3488605 ,  0.32827115,  0.53795004, ..., -0.13060446,\n         0.10830562,  0.78877103],\n       [ 1.1322312 , -0.09964247,  0.50421995, ...,  0.6673609 ,\n         0.99060714,  0.13399106],\n       [ 0.89809793, -0.35559192,  0.5726411 , ...,  0.6000433 ,\n        -0.47495118,  0.03988029]], dtype=float32)>, 'bias': <tf.Tensor: shape=(512,), dtype=float32, numpy=\narray([ 8.95190477e-01, -5.51398806e-02, -2.36536789e+00,  1.24178931e-01,\n       -4.33928549e-01,  7.23884284e-01,  2.27926508e-01, -7.93698013e-01,\n       -1.74375272e+00, -1.88694119e+00,  1.97065568e+00,  1.19989526e+00,\n        6.09932125e-01, -1.15604237e-01, -7.30499089e-01, -1.51953310e-01,\n        2.99188942e-01, -2.44749594e+00,  2.22547054e+00,  6.39872670e-01,\n       -6.17477417e-01,  5.49544871e-01, -8.94915521e-01, -1.22566009e+00,\n       -2.28106096e-01, -2.67904788e-01, -8.59562755e-01, -1.40944624e+00,\n       -1.92228511e-01,  1.17349851e+00,  3.91532063e-01, -7.88534284e-01,\n        1.05171120e+00, -4.46629107e-01, -4.34044302e-01,  1.08338344e+00,\n        3.14753830e-01,  1.54279745e+00, -3.45588356e-01,  1.36781299e+00,\n       -5.00404909e-02, -1.19059467e+00,  3.13752770e-01, -2.71710187e-01,\n        1.61683726e+00, -5.60884953e-01, -5.01035035e-01, -7.32838362e-02,\n        8.08118105e-01, -5.67471921e-01,  2.03881457e-01,  2.90440381e-01,\n        6.23437345e-01, -2.82937407e+00,  2.69309670e-01, -6.65910065e-01,\n        1.96829474e+00, -6.02707593e-03, -1.09267914e+00,  4.13354099e-01,\n       -2.59200484e-01,  4.94400114e-01,  2.17657536e-01, -6.22728646e-01,\n       -3.63352358e-01,  1.05496757e-01,  1.16036403e+00,  7.67166555e-01,\n       -7.21893966e-01, -1.03876579e+00, -6.41707540e-01,  4.48071390e-01,\n       -2.79232407e+00, -1.15136039e+00, -1.05568290e+00,  1.80855095e+00,\n        1.30248562e-01, -6.75695717e-01,  9.49054360e-02,  5.43532431e-01,\n       -9.16876435e-01,  4.86597747e-01, -9.15696502e-01, -9.27064121e-02,\n        1.08953142e+00, -5.16533613e-01,  1.90943623e+00, -1.36095524e+00,\n        3.89582336e-01,  3.69352102e-01,  5.93797624e-01, -8.56033266e-01,\n        5.42601407e-01,  1.31471550e+00, -1.44610190e+00,  5.38748622e-01,\n        2.86323726e-01, -1.67710245e+00,  2.07832503e+00,  4.52744275e-01,\n       -1.08762309e-01,  5.35165846e-01, -9.20896530e-01,  1.60698342e+00,\n       -1.19838929e+00, -8.70485663e-01,  1.06242216e+00, -6.56904280e-01,\n       -2.14884925e+00,  1.35139808e-01, -1.26439595e+00,  1.16972697e+00,\n       -6.23898566e-01,  1.26255959e-01, -1.44003475e+00, -1.56992114e+00,\n        2.29010314e-01,  3.70941162e-01,  1.92590162e-01,  7.81225637e-02,\n        5.47769189e-01, -4.18491662e-01,  3.12334985e-01,  3.48955244e-01,\n       -3.88467640e-01,  5.66380024e-01, -1.23327935e+00,  1.86470136e-01,\n       -2.72957623e-01,  4.36730355e-01, -1.58316231e+00,  5.89591086e-01,\n        1.88765123e-01, -6.63112819e-01, -1.63908869e-01, -1.04575288e+00,\n        4.47898865e-01, -1.01748121e+00,  2.10882425e-01,  7.65961349e-01,\n        1.50434053e+00, -6.97124228e-02, -1.53303027e+00,  2.11277676e+00,\n        1.08925283e-01,  1.27180672e+00, -5.70474386e-01,  1.80007577e-01,\n       -3.16887833e-02, -2.11547032e-01,  8.30427349e-01,  5.24929702e-01,\n        6.56287789e-01, -1.35243118e+00,  3.41441371e-02, -1.24624002e+00,\n       -2.71757603e-01,  9.53149319e-01, -4.54581827e-01, -2.54796505e+00,\n       -7.40186334e-01, -1.54075313e+00,  8.36186111e-01, -9.20152068e-02,\n        3.61015856e-01,  5.25196314e-01,  2.32478857e+00, -2.53933966e-01,\n        1.85649669e+00,  7.19762325e-01, -1.05770759e-01, -4.20487553e-01,\n       -4.47297037e-01, -3.41801226e-01, -4.58310932e-01,  2.02473974e+00,\n       -1.06578481e+00, -6.66129887e-01,  7.27401912e-01, -4.05334234e-01,\n       -2.81468129e+00, -7.70464897e-01,  7.61667490e-02, -1.87357262e-01,\n        8.51099014e-01, -9.09861550e-02,  4.76142168e-01, -1.23068380e+00,\n        3.82223755e-01, -7.47735858e-01, -2.03725839e+00, -1.67304659e+00,\n        2.20312253e-01,  3.62380296e-01,  7.46767998e-01,  1.71171203e-01,\n        6.50546178e-02, -5.24905980e-01,  4.84703302e-01, -2.06630874e+00,\n       -6.37148738e-01,  4.94402468e-01,  4.15684670e-01, -5.69993258e-01,\n       -9.19746041e-01, -3.04388016e-01, -2.72003675e+00, -6.28283739e-01,\n        2.20076823e+00,  7.89948881e-01,  2.17678952e+00, -1.13754416e+00,\n       -1.03946030e+00,  2.40793198e-01, -6.85994983e-01,  2.06255421e-01,\n       -5.10195076e-01, -2.13792711e-01,  8.12551796e-01, -7.88809240e-01,\n       -1.13521695e+00, -1.75909472e+00,  2.01647353e+00,  8.44344735e-01,\n        1.27535868e+00, -6.79248393e-01,  2.84968376e-01,  9.13052976e-01,\n        1.03125107e+00, -1.55104101e+00, -7.54844964e-01,  7.29101479e-01,\n       -1.06205714e+00, -8.14828992e-01, -6.28289640e-01, -1.05167091e+00,\n        4.10568684e-01,  2.59181052e-01, -1.15427494e+00, -5.32694161e-01,\n       -1.20059639e-01,  8.59352767e-01, -5.78448176e-01,  3.96419838e-02,\n        7.16796398e-01,  1.03516173e+00,  4.77402002e-01,  3.22134167e-01,\n       -1.89330649e+00,  1.35450780e+00,  1.82870233e+00,  3.13467771e-01,\n       -5.34275711e-01,  1.10881150e-01, -7.10890532e-01, -1.07450771e+00,\n       -3.96657974e-01,  1.34224629e+00, -3.21677148e-01, -2.89119899e-01,\n        6.36751890e-01, -1.01977468e+00,  1.84882641e-01, -2.28589341e-01,\n       -6.09120727e-01, -1.62389159e-01, -1.22688484e+00,  2.04476938e-01,\n        1.06070614e+00,  7.71627963e-01,  1.06718194e+00,  2.49215260e-01,\n        4.69523109e-02,  1.33798560e-02,  3.65326405e-01,  1.58897340e-01,\n       -5.26140451e-01,  2.93739885e-03, -1.18025206e-01,  8.38808060e-01,\n       -1.51187515e+00, -8.62629056e-01,  7.65417516e-01, -8.45159054e-01,\n       -3.91400456e-01,  1.21062541e+00, -4.98444200e-01,  1.56301713e+00,\n        5.89932837e-02,  3.22052985e-01,  8.87069345e-01, -7.21015215e-01,\n       -6.60070121e-01, -6.61283612e-01,  9.08505172e-02, -9.37460780e-01,\n        1.17455614e+00,  8.72412883e-03,  1.30205497e-01, -2.50743985e-01,\n        8.01563680e-01, -5.50216436e-01,  8.57296288e-01, -5.00946045e-01,\n        1.36315957e-01, -1.07311130e+00, -4.27144438e-01, -7.11912930e-01,\n       -5.09419560e-01,  4.29661274e-01,  7.29258895e-01, -5.76572418e-01,\n       -4.67827111e-01, -7.78224707e-01, -6.90416157e-01,  4.50862348e-02,\n        1.92042887e+00, -1.71438813e-01, -5.47097862e-01, -1.69296873e+00,\n       -2.17871398e-01, -8.51449221e-02, -9.60365608e-02,  1.67279601e+00,\n       -5.61194420e-01, -7.67512381e-01,  3.88351262e-01,  5.90049326e-02,\n       -2.28166878e-01, -8.05628121e-01,  1.26567459e+00,  1.95831478e+00,\n        1.78160369e-01,  1.25053155e+00, -1.01646912e+00,  1.00659096e+00,\n        3.82790059e-01,  1.46433079e+00,  2.34137729e-01, -2.33792618e-01,\n       -8.84827077e-01,  2.48516083e+00, -5.00680089e-01,  2.64774799e-01,\n       -1.06053877e+00,  1.06969988e+00,  1.22474261e-01, -1.43697226e+00,\n       -3.35753262e-01, -1.62475038e+00, -5.36648870e-01,  9.81094420e-01,\n       -3.08019996e-01,  5.90726137e-01, -1.67706445e-01, -4.67857629e-01,\n        6.65531397e-01,  4.18775469e-01, -1.11828089e+00, -1.06487203e+00,\n       -1.58196539e-01,  5.04913211e-01, -9.12426889e-01,  8.32166195e-01,\n        1.71732497e+00,  3.97469312e-01,  7.83885002e-01,  1.18600316e-01,\n       -8.33506048e-01,  2.38996670e-01, -1.70043349e+00,  1.25768948e+00,\n        6.35812711e-03,  3.66406649e-01,  9.21697766e-02, -3.11449230e-01,\n        2.34670769e-02,  8.06499958e-01,  1.59360456e+00, -1.14608550e+00,\n       -2.47012377e-01, -1.74338490e-01, -1.50820598e-01, -7.08685637e-01,\n       -2.04340410e+00, -8.21690321e-01, -2.19041920e+00, -6.07061863e-01,\n        1.30525976e-01, -6.50833666e-01,  5.50489187e-01,  8.86313260e-01,\n       -4.25558656e-01, -7.29901552e-01, -2.22729668e-01, -5.94115257e-02,\n        3.39926809e-01, -6.45979464e-01, -7.17096031e-02, -2.74228358e+00,\n       -1.26752973e+00, -9.51654077e-01,  6.46425247e-01,  1.47471270e-02,\n        7.32421041e-01, -1.20199859e+00,  1.08738884e-01, -1.90889090e-01,\n       -6.11289442e-01,  1.96287513e-01,  2.43025720e-01, -8.80626857e-01,\n        1.42721552e-02,  1.08116007e+00, -1.98463455e-01, -2.50769630e-02,\n        1.02651808e-02, -8.89414787e-01, -4.05969322e-01,  1.09702921e+00,\n        8.73641729e-01, -1.47135520e+00, -7.50730574e-01,  3.00625831e-01,\n        1.37222433e+00,  5.90282440e-01,  5.63791752e-01,  3.59013081e-01,\n       -1.31518811e-01,  7.96733022e-01, -5.49043119e-01,  3.12070549e-01,\n       -1.61537439e-01,  2.04575568e-01, -1.11104143e+00, -1.24861717e+00,\n       -1.71789849e+00, -2.97096130e-02,  1.19920981e+00,  5.29469192e-01,\n        1.49217701e+00, -1.03089666e+00, -1.18608940e+00,  3.98272723e-01,\n       -3.46254408e-01, -6.57554269e-01,  1.21271396e+00, -4.17604417e-01,\n       -1.59240794e+00,  1.03365493e+00, -1.76844895e+00,  3.06508958e-01,\n        1.73783100e+00, -9.46672037e-02, -4.93479162e-01,  1.83121637e-01,\n       -4.43540901e-01,  1.24403870e+00, -8.39936435e-01,  3.26905549e-01,\n        5.75914800e-01, -4.09118652e-01,  9.32430863e-01, -1.35801148e+00,\n        5.81181049e-01, -1.08662224e+00, -5.63490689e-01,  2.23544145e+00,\n        3.21494401e-01, -3.19318682e-01,  9.24124241e-01, -6.85849965e-01,\n       -1.47658837e+00,  4.53809381e-01, -3.01734954e-01, -5.56853056e-01,\n       -2.50989377e-01,  8.34606588e-01,  1.65007472e+00, -8.66332352e-01,\n        2.28949025e-01,  1.21428803e-01, -7.48411655e-01, -1.10306704e+00,\n        3.24268103e-01,  5.16514719e-01, -9.41503167e-01,  1.32097566e+00,\n       -1.86522141e-01,  2.21150708e+00, -3.34734702e+00,  3.12075168e-01,\n        1.20965588e+00,  1.83025968e+00, -1.03852518e-01,  8.19257617e-01,\n       -1.60084569e+00, -1.31779706e+00, -9.25569981e-02,  4.52750981e-01,\n       -1.18191443e-01,  1.98690861e-01,  1.25724244e+00,  1.16413152e+00,\n       -3.71383578e-01, -1.15997851e-01, -1.86652780e-01, -1.40494490e+00,\n        2.51117849e+00,  1.48060596e+00,  8.54686975e-01,  2.83677757e-01],\n      dtype=float32)>}",
        "paddle_error": "linear() missing 1 required positional argument: 'x'",
        "comparison_error": null,
        "tensorflow_shape": null,
        "paddle_shape": null,
        "tensorflow_dtype": null,
        "paddle_dtype": null,
        "status": "both_failed",
        "tensorflow_traceback": "Traceback (most recent call last):\n  File \"D:\\graduate\\DFrameworkTest\\tf_pd_test\\llm_enhanced_compare.py\", line 736, in execute_test_case\n    tensorflow_instance = tensorflow_func(**init_kwargs)\n  File \"D:\\anaconda3\\envs\\tf_env\\lib\\site-packages\\keras\\src\\layers\\core\\dense.py\", line 93, in __init__\n    super().__init__(activity_regularizer=activity_regularizer, **kwargs)\n  File \"D:\\anaconda3\\envs\\tf_env\\lib\\site-packages\\keras\\src\\layers\\layer.py\", line 291, in __init__\n    raise ValueError(\nValueError: Unrecognized keyword arguments passed to Dense: {'weight': <tf.Tensor: shape=(64, 512), dtype=float32, numpy=\narray([[-0.61671364,  0.08302015,  0.9956327 , ...,  0.616372  ,\n         0.7681561 , -1.8210287 ],\n       [-1.6508186 ,  1.1010376 ,  1.068401  , ...,  0.6465065 ,\n         0.37918448,  1.5293944 ],\n       [ 1.2059448 ,  0.09688105, -0.7534099 , ...,  2.0311985 ,\n         1.207478  , -0.2560113 ],\n       ...,\n       [ 2.3488605 ,  0.32827115,  0.53795004, ..., -0.13060446,\n         0.10830562,  0.78877103],\n       [ 1.1322312 , -0.09964247,  0.50421995, ...,  0.6673609 ,\n         0.99060714,  0.13399106],\n       [ 0.89809793, -0.35559192,  0.5726411 , ...,  0.6000433 ,\n        -0.47495118,  0.03988029]], dtype=float32)>, 'bias': <tf.Tensor: shape=(512,), dtype=float32, numpy=\narray([ 8.95190477e-01, -5.51398806e-02, -2.36536789e+00,  1.24178931e-01,\n       -4.33928549e-01,  7.23884284e-01,  2.27926508e-01, -7.93698013e-01,\n       -1.74375272e+00, -1.88694119e+00,  1.97065568e+00,  1.19989526e+00,\n        6.09932125e-01, -1.15604237e-01, -7.30499089e-01, -1.51953310e-01,\n        2.99188942e-01, -2.44749594e+00,  2.22547054e+00,  6.39872670e-01,\n       -6.17477417e-01,  5.49544871e-01, -8.94915521e-01, -1.22566009e+00,\n       -2.28106096e-01, -2.67904788e-01, -8.59562755e-01, -1.40944624e+00,\n       -1.92228511e-01,  1.17349851e+00,  3.91532063e-01, -7.88534284e-01,\n        1.05171120e+00, -4.46629107e-01, -4.34044302e-01,  1.08338344e+00,\n        3.14753830e-01,  1.54279745e+00, -3.45588356e-01,  1.36781299e+00,\n       -5.00404909e-02, -1.19059467e+00,  3.13752770e-01, -2.71710187e-01,\n        1.61683726e+00, -5.60884953e-01, -5.01035035e-01, -7.32838362e-02,\n        8.08118105e-01, -5.67471921e-01,  2.03881457e-01,  2.90440381e-01,\n        6.23437345e-01, -2.82937407e+00,  2.69309670e-01, -6.65910065e-01,\n        1.96829474e+00, -6.02707593e-03, -1.09267914e+00,  4.13354099e-01,\n       -2.59200484e-01,  4.94400114e-01,  2.17657536e-01, -6.22728646e-01,\n       -3.63352358e-01,  1.05496757e-01,  1.16036403e+00,  7.67166555e-01,\n       -7.21893966e-01, -1.03876579e+00, -6.41707540e-01,  4.48071390e-01,\n       -2.79232407e+00, -1.15136039e+00, -1.05568290e+00,  1.80855095e+00,\n        1.30248562e-01, -6.75695717e-01,  9.49054360e-02,  5.43532431e-01,\n       -9.16876435e-01,  4.86597747e-01, -9.15696502e-01, -9.27064121e-02,\n        1.08953142e+00, -5.16533613e-01,  1.90943623e+00, -1.36095524e+00,\n        3.89582336e-01,  3.69352102e-01,  5.93797624e-01, -8.56033266e-01,\n        5.42601407e-01,  1.31471550e+00, -1.44610190e+00,  5.38748622e-01,\n        2.86323726e-01, -1.67710245e+00,  2.07832503e+00,  4.52744275e-01,\n       -1.08762309e-01,  5.35165846e-01, -9.20896530e-01,  1.60698342e+00,\n       -1.19838929e+00, -8.70485663e-01,  1.06242216e+00, -6.56904280e-01,\n       -2.14884925e+00,  1.35139808e-01, -1.26439595e+00,  1.16972697e+00,\n       -6.23898566e-01,  1.26255959e-01, -1.44003475e+00, -1.56992114e+00,\n        2.29010314e-01,  3.70941162e-01,  1.92590162e-01,  7.81225637e-02,\n        5.47769189e-01, -4.18491662e-01,  3.12334985e-01,  3.48955244e-01,\n       -3.88467640e-01,  5.66380024e-01, -1.23327935e+00,  1.86470136e-01,\n       -2.72957623e-01,  4.36730355e-01, -1.58316231e+00,  5.89591086e-01,\n        1.88765123e-01, -6.63112819e-01, -1.63908869e-01, -1.04575288e+00,\n        4.47898865e-01, -1.01748121e+00,  2.10882425e-01,  7.65961349e-01,\n        1.50434053e+00, -6.97124228e-02, -1.53303027e+00,  2.11277676e+00,\n        1.08925283e-01,  1.27180672e+00, -5.70474386e-01,  1.80007577e-01,\n       -3.16887833e-02, -2.11547032e-01,  8.30427349e-01,  5.24929702e-01,\n        6.56287789e-01, -1.35243118e+00,  3.41441371e-02, -1.24624002e+00,\n       -2.71757603e-01,  9.53149319e-01, -4.54581827e-01, -2.54796505e+00,\n       -7.40186334e-01, -1.54075313e+00,  8.36186111e-01, -9.20152068e-02,\n        3.61015856e-01,  5.25196314e-01,  2.32478857e+00, -2.53933966e-01,\n        1.85649669e+00,  7.19762325e-01, -1.05770759e-01, -4.20487553e-01,\n       -4.47297037e-01, -3.41801226e-01, -4.58310932e-01,  2.02473974e+00,\n       -1.06578481e+00, -6.66129887e-01,  7.27401912e-01, -4.05334234e-01,\n       -2.81468129e+00, -7.70464897e-01,  7.61667490e-02, -1.87357262e-01,\n        8.51099014e-01, -9.09861550e-02,  4.76142168e-01, -1.23068380e+00,\n        3.82223755e-01, -7.47735858e-01, -2.03725839e+00, -1.67304659e+00,\n        2.20312253e-01,  3.62380296e-01,  7.46767998e-01,  1.71171203e-01,\n        6.50546178e-02, -5.24905980e-01,  4.84703302e-01, -2.06630874e+00,\n       -6.37148738e-01,  4.94402468e-01,  4.15684670e-01, -5.69993258e-01,\n       -9.19746041e-01, -3.04388016e-01, -2.72003675e+00, -6.28283739e-01,\n        2.20076823e+00,  7.89948881e-01,  2.17678952e+00, -1.13754416e+00,\n       -1.03946030e+00,  2.40793198e-01, -6.85994983e-01,  2.06255421e-01,\n       -5.10195076e-01, -2.13792711e-01,  8.12551796e-01, -7.88809240e-01,\n       -1.13521695e+00, -1.75909472e+00,  2.01647353e+00,  8.44344735e-01,\n        1.27535868e+00, -6.79248393e-01,  2.84968376e-01,  9.13052976e-01,\n        1.03125107e+00, -1.55104101e+00, -7.54844964e-01,  7.29101479e-01,\n       -1.06205714e+00, -8.14828992e-01, -6.28289640e-01, -1.05167091e+00,\n        4.10568684e-01,  2.59181052e-01, -1.15427494e+00, -5.32694161e-01,\n       -1.20059639e-01,  8.59352767e-01, -5.78448176e-01,  3.96419838e-02,\n        7.16796398e-01,  1.03516173e+00,  4.77402002e-01,  3.22134167e-01,\n       -1.89330649e+00,  1.35450780e+00,  1.82870233e+00,  3.13467771e-01,\n       -5.34275711e-01,  1.10881150e-01, -7.10890532e-01, -1.07450771e+00,\n       -3.96657974e-01,  1.34224629e+00, -3.21677148e-01, -2.89119899e-01,\n        6.36751890e-01, -1.01977468e+00,  1.84882641e-01, -2.28589341e-01,\n       -6.09120727e-01, -1.62389159e-01, -1.22688484e+00,  2.04476938e-01,\n        1.06070614e+00,  7.71627963e-01,  1.06718194e+00,  2.49215260e-01,\n        4.69523109e-02,  1.33798560e-02,  3.65326405e-01,  1.58897340e-01,\n       -5.26140451e-01,  2.93739885e-03, -1.18025206e-01,  8.38808060e-01,\n       -1.51187515e+00, -8.62629056e-01,  7.65417516e-01, -8.45159054e-01,\n       -3.91400456e-01,  1.21062541e+00, -4.98444200e-01,  1.56301713e+00,\n        5.89932837e-02,  3.22052985e-01,  8.87069345e-01, -7.21015215e-01,\n       -6.60070121e-01, -6.61283612e-01,  9.08505172e-02, -9.37460780e-01,\n        1.17455614e+00,  8.72412883e-03,  1.30205497e-01, -2.50743985e-01,\n        8.01563680e-01, -5.50216436e-01,  8.57296288e-01, -5.00946045e-01,\n        1.36315957e-01, -1.07311130e+00, -4.27144438e-01, -7.11912930e-01,\n       -5.09419560e-01,  4.29661274e-01,  7.29258895e-01, -5.76572418e-01,\n       -4.67827111e-01, -7.78224707e-01, -6.90416157e-01,  4.50862348e-02,\n        1.92042887e+00, -1.71438813e-01, -5.47097862e-01, -1.69296873e+00,\n       -2.17871398e-01, -8.51449221e-02, -9.60365608e-02,  1.67279601e+00,\n       -5.61194420e-01, -7.67512381e-01,  3.88351262e-01,  5.90049326e-02,\n       -2.28166878e-01, -8.05628121e-01,  1.26567459e+00,  1.95831478e+00,\n        1.78160369e-01,  1.25053155e+00, -1.01646912e+00,  1.00659096e+00,\n        3.82790059e-01,  1.46433079e+00,  2.34137729e-01, -2.33792618e-01,\n       -8.84827077e-01,  2.48516083e+00, -5.00680089e-01,  2.64774799e-01,\n       -1.06053877e+00,  1.06969988e+00,  1.22474261e-01, -1.43697226e+00,\n       -3.35753262e-01, -1.62475038e+00, -5.36648870e-01,  9.81094420e-01,\n       -3.08019996e-01,  5.90726137e-01, -1.67706445e-01, -4.67857629e-01,\n        6.65531397e-01,  4.18775469e-01, -1.11828089e+00, -1.06487203e+00,\n       -1.58196539e-01,  5.04913211e-01, -9.12426889e-01,  8.32166195e-01,\n        1.71732497e+00,  3.97469312e-01,  7.83885002e-01,  1.18600316e-01,\n       -8.33506048e-01,  2.38996670e-01, -1.70043349e+00,  1.25768948e+00,\n        6.35812711e-03,  3.66406649e-01,  9.21697766e-02, -3.11449230e-01,\n        2.34670769e-02,  8.06499958e-01,  1.59360456e+00, -1.14608550e+00,\n       -2.47012377e-01, -1.74338490e-01, -1.50820598e-01, -7.08685637e-01,\n       -2.04340410e+00, -8.21690321e-01, -2.19041920e+00, -6.07061863e-01,\n        1.30525976e-01, -6.50833666e-01,  5.50489187e-01,  8.86313260e-01,\n       -4.25558656e-01, -7.29901552e-01, -2.22729668e-01, -5.94115257e-02,\n        3.39926809e-01, -6.45979464e-01, -7.17096031e-02, -2.74228358e+00,\n       -1.26752973e+00, -9.51654077e-01,  6.46425247e-01,  1.47471270e-02,\n        7.32421041e-01, -1.20199859e+00,  1.08738884e-01, -1.90889090e-01,\n       -6.11289442e-01,  1.96287513e-01,  2.43025720e-01, -8.80626857e-01,\n        1.42721552e-02,  1.08116007e+00, -1.98463455e-01, -2.50769630e-02,\n        1.02651808e-02, -8.89414787e-01, -4.05969322e-01,  1.09702921e+00,\n        8.73641729e-01, -1.47135520e+00, -7.50730574e-01,  3.00625831e-01,\n        1.37222433e+00,  5.90282440e-01,  5.63791752e-01,  3.59013081e-01,\n       -1.31518811e-01,  7.96733022e-01, -5.49043119e-01,  3.12070549e-01,\n       -1.61537439e-01,  2.04575568e-01, -1.11104143e+00, -1.24861717e+00,\n       -1.71789849e+00, -2.97096130e-02,  1.19920981e+00,  5.29469192e-01,\n        1.49217701e+00, -1.03089666e+00, -1.18608940e+00,  3.98272723e-01,\n       -3.46254408e-01, -6.57554269e-01,  1.21271396e+00, -4.17604417e-01,\n       -1.59240794e+00,  1.03365493e+00, -1.76844895e+00,  3.06508958e-01,\n        1.73783100e+00, -9.46672037e-02, -4.93479162e-01,  1.83121637e-01,\n       -4.43540901e-01,  1.24403870e+00, -8.39936435e-01,  3.26905549e-01,\n        5.75914800e-01, -4.09118652e-01,  9.32430863e-01, -1.35801148e+00,\n        5.81181049e-01, -1.08662224e+00, -5.63490689e-01,  2.23544145e+00,\n        3.21494401e-01, -3.19318682e-01,  9.24124241e-01, -6.85849965e-01,\n       -1.47658837e+00,  4.53809381e-01, -3.01734954e-01, -5.56853056e-01,\n       -2.50989377e-01,  8.34606588e-01,  1.65007472e+00, -8.66332352e-01,\n        2.28949025e-01,  1.21428803e-01, -7.48411655e-01, -1.10306704e+00,\n        3.24268103e-01,  5.16514719e-01, -9.41503167e-01,  1.32097566e+00,\n       -1.86522141e-01,  2.21150708e+00, -3.34734702e+00,  3.12075168e-01,\n        1.20965588e+00,  1.83025968e+00, -1.03852518e-01,  8.19257617e-01,\n       -1.60084569e+00, -1.31779706e+00, -9.25569981e-02,  4.52750981e-01,\n       -1.18191443e-01,  1.98690861e-01,  1.25724244e+00,  1.16413152e+00,\n       -3.71383578e-01, -1.15997851e-01, -1.86652780e-01, -1.40494490e+00,\n        2.51117849e+00,  1.48060596e+00,  8.54686975e-01,  2.83677757e-01],\n      dtype=float32)>}\n",
        "paddle_traceback": "Traceback (most recent call last):\n  File \"D:\\graduate\\DFrameworkTest\\tf_pd_test\\llm_enhanced_compare.py\", line 769, in execute_test_case\n    paddle_instance = paddle_func(**init_kwargs)\nTypeError: linear() missing 1 required positional argument: 'x'\n"
      },
      "llm_operation": {
        "operation": "repair",
        "reason": "TensorFlow Dense不接受weight/bias作为构造参数，需先实例化再调用；Paddle linear缺少x参数位置传入，且两框架API设计范式不同：Dense是层类，linear是函数。"
      },
      "is_llm_generated": true,
      "case_number": 1
    },
    {
      "iteration": 3,
      "tensorflow_test_case": {
        "api": "tf.keras.layers.Dense",
        "units": 512,
        "use_bias": true,
        "activation": "linear",
        "input_shape": [
          64
        ]
      },
      "paddle_test_case": {
        "api": "paddle.nn.functional.linear",
        "x": {
          "shape": [
            2708,
            64
          ],
          "dtype": "float32",
          "sample_values": [
            -0.043812792748212814,
            1.328230381011963,
            0.36156588792800903,
            1.9396541118621826,
            -0.6216175556182861,
            -0.5603329539299011,
            -0.36584043502807617,
            1.841643214225769,
            -0.2905265688896179,
            0.6139413118362427
          ]
        },
        "weight": {
          "shape": [
            64,
            512
          ],
          "dtype": "float32",
          "sample_values": [
            -0.4083579480648041,
            0.7581567764282227,
            1.4114675521850586,
            -0.609373927116394,
            0.5873582363128662,
            0.7560440897941589,
            -0.757770299911499,
            0.4782433807849884,
            0.7583916783332825,
            -1.4054008722305298
          ]
        },
        "bias": {
          "shape": [
            512
          ],
          "dtype": "float32",
          "sample_values": [
            0.6758929491043091,
            -0.7245485186576843,
            0.10664953291416168,
            0.30298152565956116,
            -0.6168578863143921,
            -0.8757989406585693,
            -1.118514895439148,
            1.1972111463546753,
            1.1777005195617676,
            1.4250775575637817
          ]
        }
      },
      "execution_result": {
        "tensorflow_api": "tf.keras.layers.Dense",
        "paddle_api": "paddle.nn.functional.linear",
        "tensorflow_success": true,
        "paddle_success": false,
        "results_match": false,
        "tensorflow_error": null,
        "paddle_error": "linear() missing 1 required positional argument: 'x'",
        "comparison_error": null,
        "tensorflow_shape": [
          2,
          512
        ],
        "paddle_shape": null,
        "tensorflow_dtype": "<dtype: 'float32'>",
        "paddle_dtype": null,
        "status": "paddle_failed",
        "paddle_traceback": "Traceback (most recent call last):\n  File \"D:\\graduate\\DFrameworkTest\\tf_pd_test\\llm_enhanced_compare.py\", line 769, in execute_test_case\n    paddle_instance = paddle_func(**init_kwargs)\nTypeError: linear() missing 1 required positional argument: 'x'\n"
      },
      "llm_operation": {
        "operation": "repair",
        "reason": "PaddlePaddle的paddle.nn.functional.linear是函数式API，必须显式传入x、weight、bias参数；而TF的Dense是层类，需先构建层再调用。原Paddle用例缺少实际x张量值（仅有shape定义），导致missing 'x' argument错误。"
      },
      "is_llm_generated": true,
      "case_number": 1
    },
    {
      "iteration": 4,
      "tensorflow_test_case": {
        "api": "tf.keras.layers.Dense",
        "units": 512,
        "use_bias": true,
        "activation": "linear",
        "input_shape": [
          64
        ]
      },
      "paddle_test_case": {
        "api": "paddle.nn.functional.linear",
        "x": {
          "shape": [
            2708,
            64
          ],
          "dtype": "float32",
          "sample_values": [
            -0.21417970955371857,
            -0.5570992827415466,
            -1.4458808898925781,
            0.04894784465432167,
            0.11200259625911713,
            -0.5006510615348816,
            0.6273260116577148,
            -0.4961574375629425,
            -0.6345556378364563,
            1.2602459192276
          ]
        },
        "weight": {
          "shape": [
            64,
            512
          ],
          "dtype": "float32",
          "sample_values": [
            0.593974769115448,
            1.0648119449615479,
            0.07933202385902405,
            1.020255208015442,
            -0.8595748543739319,
            -0.39643561840057373,
            0.20777098834514618,
            0.9541271924972534,
            -0.7011886835098267,
            0.588005006313324
          ]
        },
        "bias": {
          "shape": [
            512
          ],
          "dtype": "float32",
          "sample_values": [
            -0.3315376937389374,
            1.0914627313613892,
            0.6370036005973816,
            -0.7366083264350891,
            -1.0452381372451782,
            0.4221004545688629,
            0.6491259336471558,
            -0.6721335053443909,
            0.07187535613775253,
            0.5824174880981445
          ]
        }
      },
      "execution_result": {
        "tensorflow_api": "tf.keras.layers.Dense",
        "paddle_api": "paddle.nn.functional.linear",
        "tensorflow_success": true,
        "paddle_success": false,
        "results_match": false,
        "tensorflow_error": null,
        "paddle_error": "linear() missing 1 required positional argument: 'x'",
        "comparison_error": null,
        "tensorflow_shape": [
          2,
          512
        ],
        "paddle_shape": null,
        "tensorflow_dtype": "<dtype: 'float32'>",
        "paddle_dtype": null,
        "status": "paddle_failed",
        "paddle_traceback": "Traceback (most recent call last):\n  File \"D:\\graduate\\DFrameworkTest\\tf_pd_test\\llm_enhanced_compare.py\", line 769, in execute_test_case\n    paddle_instance = paddle_func(**init_kwargs)\nTypeError: linear() missing 1 required positional argument: 'x'\n"
      },
      "llm_operation": {
        "operation": "final_execution",
        "reason": "执行最后一次LLM生成的用例"
      },
      "case_number": 1,
      "is_llm_generated": true
    },
    {
      "iteration": 1,
      "tensorflow_test_case": {
        "weight": {
          "shape": [
            64,
            128
          ],
          "dtype": "float32",
          "sample_values": [
            0.5269590616226196,
            -0.9362881779670715,
            1.5720546245574951,
            -0.8092578053474426,
            0.0659637302160263,
            -1.2846587896347046,
            0.3910928964614868,
            -0.40194761753082275,
            0.5560169816017151,
            -0.7868253588676453
          ]
        },
        "bias": {
          "shape": [
            64
          ],
          "dtype": "float32",
          "sample_values": [
            0.07751480489969254,
            -0.41450682282447815,
            0.05541146919131279,
            0.09115227311849594,
            -1.0434072017669678,
            0.7992636561393738,
            -1.722866415977478,
            0.19056019186973572,
            1.0051289796829224,
            -0.14588657021522522
          ]
        },
        "api": "tf.keras.layers.Dense",
        "x": {
          "shape": [
            3,
            128
          ],
          "dtype": "float32",
          "sample_values": [
            -1.5780194997787476,
            0.9312018752098083,
            1.168470025062561,
            0.265369176864624,
            -0.7540280818939209,
            -1.7207080125808716,
            0.012908040545880795,
            -0.6232613325119019,
            1.3105806112289429,
            1.2562787532806396
          ]
        }
      },
      "paddle_test_case": {
        "input": {
          "shape": [
            3,
            128
          ],
          "dtype": "float32",
          "sample_values": [
            -1.5780194997787476,
            0.9312018752098083,
            1.168470025062561,
            0.265369176864624,
            -0.7540280818939209,
            -1.7207080125808716,
            0.012908040545880795,
            -0.6232613325119019,
            1.3105806112289429,
            1.2562787532806396
          ]
        },
        "weight": {
          "shape": [
            64,
            128
          ],
          "dtype": "float32",
          "sample_values": [
            0.5269590616226196,
            -0.9362881779670715,
            1.5720546245574951,
            -0.8092578053474426,
            0.0659637302160263,
            -1.2846587896347046,
            0.3910928964614868,
            -0.40194761753082275,
            0.5560169816017151,
            -0.7868253588676453
          ]
        },
        "bias": {
          "shape": [
            64
          ],
          "dtype": "float32",
          "sample_values": [
            0.07751480489969254,
            -0.41450682282447815,
            0.05541146919131279,
            0.09115227311849594,
            -1.0434072017669678,
            0.7992636561393738,
            -1.722866415977478,
            0.19056019186973572,
            1.0051289796829224,
            -0.14588657021522522
          ]
        },
        "api": "paddle.nn.functional.linear"
      },
      "execution_result": {
        "tensorflow_api": "tf.keras.layers.Dense",
        "paddle_api": "paddle.nn.functional.linear",
        "tensorflow_success": false,
        "paddle_success": false,
        "results_match": false,
        "tensorflow_error": "Dense.__init__() missing 1 required positional argument: 'units'",
        "paddle_error": "linear() missing 1 required positional argument: 'x'",
        "comparison_error": null,
        "tensorflow_shape": null,
        "paddle_shape": null,
        "tensorflow_dtype": null,
        "paddle_dtype": null,
        "status": "both_failed",
        "tensorflow_traceback": "Traceback (most recent call last):\n  File \"D:\\graduate\\DFrameworkTest\\tf_pd_test\\llm_enhanced_compare.py\", line 736, in execute_test_case\n    tensorflow_instance = tensorflow_func(**init_kwargs)\nTypeError: Dense.__init__() missing 1 required positional argument: 'units'\n",
        "paddle_traceback": "Traceback (most recent call last):\n  File \"D:\\graduate\\DFrameworkTest\\tf_pd_test\\llm_enhanced_compare.py\", line 769, in execute_test_case\n    paddle_instance = paddle_func(**init_kwargs)\nTypeError: linear() missing 1 required positional argument: 'x'\n"
      },
      "llm_operation": {
        "operation": "repair",
        "reason": "TensorFlow Dense requires 'units' argument; Paddle linear requires 'x' not 'input'. Both test cases miss required positional args per their API signatures."
      },
      "is_llm_generated": false,
      "case_number": 2
    },
    {
      "iteration": 2,
      "tensorflow_test_case": {
        "api": "tf.keras.layers.Dense",
        "units": 64,
        "use_bias": true,
        "activation": "linear",
        "weight": {
          "shape": [
            128,
            64
          ],
          "dtype": "float32",
          "sample_values": [
            1.5703561305999756,
            0.061226487159729004,
            0.4050293266773224,
            -1.6556751728057861,
            -1.1247942447662354,
            0.7091404795646667,
            -0.6971951723098755,
            1.1182971000671387,
            2.0076186656951904,
            1.907167673110962
          ]
        },
        "bias": {
          "shape": [
            64
          ],
          "dtype": "float32",
          "sample_values": [
            -2.067378520965576,
            -0.08888058364391327,
            -1.1960511207580566,
            -1.7185474634170532,
            0.9908867478370667,
            -0.876833438873291,
            0.458053320646286,
            -1.5515233278274536,
            0.03409488499164581,
            -0.5975991487503052
          ]
        },
        "x": {
          "shape": [
            3,
            128
          ],
          "dtype": "float32",
          "sample_values": [
            1.4082454442977905,
            -0.2771216332912445,
            0.994470477104187,
            0.8652708530426025,
            -0.18150965869426727,
            -0.5614486336708069,
            -1.4955955743789673,
            -1.136897087097168,
            0.28202739357948303,
            -0.11108648031949997
          ]
        }
      },
      "paddle_test_case": {
        "api": "paddle.nn.functional.linear",
        "x": {
          "shape": [
            3,
            128
          ],
          "dtype": "float32",
          "sample_values": [
            1.4082454442977905,
            -0.2771216332912445,
            0.994470477104187,
            0.8652708530426025,
            -0.18150965869426727,
            -0.5614486336708069,
            -1.4955955743789673,
            -1.136897087097168,
            0.28202739357948303,
            -0.11108648031949997
          ]
        },
        "weight": {
          "shape": [
            128,
            64
          ],
          "dtype": "float32",
          "sample_values": [
            1.5703561305999756,
            0.061226487159729004,
            0.4050293266773224,
            -1.6556751728057861,
            -1.1247942447662354,
            0.7091404795646667,
            -0.6971951723098755,
            1.1182971000671387,
            2.0076186656951904,
            1.907167673110962
          ]
        },
        "bias": {
          "shape": [
            64
          ],
          "dtype": "float32",
          "sample_values": [
            -2.067378520965576,
            -0.08888058364391327,
            -1.1960511207580566,
            -1.7185474634170532,
            0.9908867478370667,
            -0.876833438873291,
            0.458053320646286,
            -1.5515233278274536,
            0.03409488499164581,
            -0.5975991487503052
          ]
        }
      },
      "execution_result": {
        "tensorflow_api": "tf.keras.layers.Dense",
        "paddle_api": "paddle.nn.functional.linear",
        "tensorflow_success": false,
        "paddle_success": false,
        "results_match": false,
        "tensorflow_error": "Unrecognized keyword arguments passed to Dense: {'weight': <tf.Tensor: shape=(128, 64), dtype=float32, numpy=\narray([[ 1.5703561 ,  0.06122649,  0.40502933, ..., -0.30249017,\n        -0.87340426, -1.8881644 ],\n       [-0.6552224 ,  0.06723941, -0.7150577 , ..., -1.150382  ,\n        -2.0945122 , -0.04706406],\n       [ 0.45582724,  0.12380787, -0.12425652, ...,  1.0145894 ,\n        -0.27885577,  0.10492033],\n       ...,\n       [-1.0232162 , -1.3149786 ,  0.22330606, ...,  1.1097387 ,\n         0.8235342 , -0.19653392],\n       [-2.003002  ,  1.5738907 , -0.49313527, ...,  0.9638923 ,\n         0.08245476, -2.3376858 ],\n       [-0.6745778 , -0.02074033, -0.3620491 , ..., -0.7339231 ,\n        -1.7364479 , -0.992225  ]], dtype=float32)>, 'bias': <tf.Tensor: shape=(64,), dtype=float32, numpy=\narray([-2.0673785 , -0.08888058, -1.1960511 , -1.7185475 ,  0.99088675,\n       -0.87683344,  0.45805332, -1.5515233 ,  0.03409488, -0.59759915,\n       -0.03532519, -2.2958257 , -1.1444564 , -0.44713262, -1.4152648 ,\n       -0.29313162,  0.15298417,  0.24511626,  1.5876646 , -0.7393536 ,\n        0.315879  ,  0.813973  , -1.6259065 ,  0.3610696 ,  1.3487926 ,\n       -0.42814872,  0.2517817 , -1.0183017 , -1.3466556 ,  0.29452816,\n        0.35634336, -0.22855498,  2.199239  , -0.45645306,  0.89338815,\n        1.0752548 ,  0.0715403 ,  1.1989856 ,  0.90550613, -0.95689416,\n       -1.0783886 , -1.7612076 ,  0.6113112 , -1.8518082 ,  2.324341  ,\n        1.172304  ,  1.7662002 , -1.4111327 , -2.1435442 ,  0.17238921,\n        1.3204783 , -0.33892852,  1.7105923 ,  0.27880675, -0.2883416 ,\n        0.71287894,  0.12041433,  0.8303181 ,  2.0786629 , -1.8196832 ,\n        0.08629465,  0.8297615 , -0.9345553 ,  0.03105032], dtype=float32)>}",
        "paddle_error": "linear() missing 1 required positional argument: 'x'",
        "comparison_error": null,
        "tensorflow_shape": null,
        "paddle_shape": null,
        "tensorflow_dtype": null,
        "paddle_dtype": null,
        "status": "both_failed",
        "tensorflow_traceback": "Traceback (most recent call last):\n  File \"D:\\graduate\\DFrameworkTest\\tf_pd_test\\llm_enhanced_compare.py\", line 736, in execute_test_case\n    tensorflow_instance = tensorflow_func(**init_kwargs)\n  File \"D:\\anaconda3\\envs\\tf_env\\lib\\site-packages\\keras\\src\\layers\\core\\dense.py\", line 93, in __init__\n    super().__init__(activity_regularizer=activity_regularizer, **kwargs)\n  File \"D:\\anaconda3\\envs\\tf_env\\lib\\site-packages\\keras\\src\\layers\\layer.py\", line 291, in __init__\n    raise ValueError(\nValueError: Unrecognized keyword arguments passed to Dense: {'weight': <tf.Tensor: shape=(128, 64), dtype=float32, numpy=\narray([[ 1.5703561 ,  0.06122649,  0.40502933, ..., -0.30249017,\n        -0.87340426, -1.8881644 ],\n       [-0.6552224 ,  0.06723941, -0.7150577 , ..., -1.150382  ,\n        -2.0945122 , -0.04706406],\n       [ 0.45582724,  0.12380787, -0.12425652, ...,  1.0145894 ,\n        -0.27885577,  0.10492033],\n       ...,\n       [-1.0232162 , -1.3149786 ,  0.22330606, ...,  1.1097387 ,\n         0.8235342 , -0.19653392],\n       [-2.003002  ,  1.5738907 , -0.49313527, ...,  0.9638923 ,\n         0.08245476, -2.3376858 ],\n       [-0.6745778 , -0.02074033, -0.3620491 , ..., -0.7339231 ,\n        -1.7364479 , -0.992225  ]], dtype=float32)>, 'bias': <tf.Tensor: shape=(64,), dtype=float32, numpy=\narray([-2.0673785 , -0.08888058, -1.1960511 , -1.7185475 ,  0.99088675,\n       -0.87683344,  0.45805332, -1.5515233 ,  0.03409488, -0.59759915,\n       -0.03532519, -2.2958257 , -1.1444564 , -0.44713262, -1.4152648 ,\n       -0.29313162,  0.15298417,  0.24511626,  1.5876646 , -0.7393536 ,\n        0.315879  ,  0.813973  , -1.6259065 ,  0.3610696 ,  1.3487926 ,\n       -0.42814872,  0.2517817 , -1.0183017 , -1.3466556 ,  0.29452816,\n        0.35634336, -0.22855498,  2.199239  , -0.45645306,  0.89338815,\n        1.0752548 ,  0.0715403 ,  1.1989856 ,  0.90550613, -0.95689416,\n       -1.0783886 , -1.7612076 ,  0.6113112 , -1.8518082 ,  2.324341  ,\n        1.172304  ,  1.7662002 , -1.4111327 , -2.1435442 ,  0.17238921,\n        1.3204783 , -0.33892852,  1.7105923 ,  0.27880675, -0.2883416 ,\n        0.71287894,  0.12041433,  0.8303181 ,  2.0786629 , -1.8196832 ,\n        0.08629465,  0.8297615 , -0.9345553 ,  0.03105032], dtype=float32)>}\n",
        "paddle_traceback": "Traceback (most recent call last):\n  File \"D:\\graduate\\DFrameworkTest\\tf_pd_test\\llm_enhanced_compare.py\", line 769, in execute_test_case\n    paddle_instance = paddle_func(**init_kwargs)\nTypeError: linear() missing 1 required positional argument: 'x'\n"
      },
      "llm_operation": {
        "operation": "repair",
        "reason": "TensorFlow Dense不接受weight/bias作为构造参数，需先实例化再调用；Paddle linear缺少x参数位置错误。应改为先构建层/权重再执行前向。"
      },
      "is_llm_generated": true,
      "case_number": 2
    },
    {
      "iteration": 3,
      "tensorflow_test_case": {
        "api": "tf.keras.layers.Dense",
        "units": 64,
        "use_bias": true,
        "activation": "linear"
      },
      "paddle_test_case": {
        "api": "paddle.nn.functional.linear",
        "x": {
          "shape": [
            3,
            128
          ],
          "dtype": "float32",
          "sample_values": [
            -1.4012399911880493,
            1.3523844480514526,
            -0.5323721170425415,
            0.055382199585437775,
            -1.4178768396377563,
            0.254844069480896,
            -1.4402559995651245,
            2.0809900760650635,
            0.47471070289611816,
            0.10436179488897324
          ]
        },
        "weight": {
          "shape": [
            128,
            64
          ],
          "dtype": "float32",
          "sample_values": [
            1.1173286437988281,
            -1.0169061422348022,
            -1.390584111213684,
            -0.8491706848144531,
            -0.8212447762489319,
            -0.7197150588035583,
            0.5900456309318542,
            0.349259614944458,
            -1.6544626951217651,
            -1.6180689334869385
          ]
        },
        "bias": {
          "shape": [
            64
          ],
          "dtype": "float32",
          "sample_values": [
            0.31967592239379883,
            1.0246917009353638,
            2.095529079437256,
            0.7670063972473145,
            0.6602704524993896,
            0.30067262053489685,
            -2.1233367919921875,
            -0.3262062072753906,
            -1.3606942892074585,
            -1.4301350116729736
          ]
        }
      },
      "execution_result": {
        "tensorflow_api": "tf.keras.layers.Dense",
        "paddle_api": "paddle.nn.functional.linear",
        "tensorflow_success": true,
        "paddle_success": false,
        "results_match": false,
        "tensorflow_error": null,
        "paddle_error": "linear() missing 1 required positional argument: 'x'",
        "comparison_error": null,
        "tensorflow_shape": [
          2,
          64
        ],
        "paddle_shape": null,
        "tensorflow_dtype": "<dtype: 'float32'>",
        "paddle_dtype": null,
        "status": "paddle_failed",
        "paddle_traceback": "Traceback (most recent call last):\n  File \"D:\\graduate\\DFrameworkTest\\tf_pd_test\\llm_enhanced_compare.py\", line 769, in execute_test_case\n    paddle_instance = paddle_func(**init_kwargs)\nTypeError: linear() missing 1 required positional argument: 'x'\n"
      },
      "llm_operation": {
        "operation": "repair",
        "reason": "PaddlePaddle的paddle.nn.functional.linear是函数式API，必须显式传入x、weight、bias参数；而TF的Dense是层类，需先实例化再调用。原Paddle用例缺少x的实际张量构造，仅描述shape，导致missing 'x'错误。"
      },
      "is_llm_generated": true,
      "case_number": 2
    },
    {
      "iteration": 4,
      "tensorflow_test_case": {
        "api": "tf.keras.layers.Dense",
        "units": 64,
        "use_bias": true,
        "activation": "linear"
      },
      "paddle_test_case": {
        "api": "paddle.nn.functional.linear",
        "x": {
          "shape": [
            3,
            128
          ],
          "dtype": "float32",
          "sample_values": [
            -0.1461057960987091,
            0.3425540328025818,
            -1.0342011451721191,
            -0.7991964817047119,
            -0.3041662573814392,
            0.539849579334259,
            -1.632341742515564,
            -0.34338483214378357,
            0.4045991897583008,
            -1.920608639717102
          ]
        },
        "weight": {
          "shape": [
            128,
            64
          ],
          "dtype": "float32",
          "sample_values": [
            0.05858221277594566,
            -0.8289164304733276,
            0.38008326292037964,
            -1.0551159381866455,
            -0.6809955835342407,
            0.14004404842853546,
            -0.7474986910820007,
            0.3762035071849823,
            -1.2628302574157715,
            1.5376148223876953
          ]
        },
        "bias": {
          "shape": [
            64
          ],
          "dtype": "float32",
          "sample_values": [
            -1.3511483669281006,
            0.29172012209892273,
            -2.0012781620025635,
            0.701261043548584,
            0.8410904407501221,
            -0.08959711343050003,
            -1.7390626668930054,
            0.20226256549358368,
            -1.085885763168335,
            0.9426410794258118
          ]
        }
      },
      "execution_result": {
        "tensorflow_api": "tf.keras.layers.Dense",
        "paddle_api": "paddle.nn.functional.linear",
        "tensorflow_success": true,
        "paddle_success": false,
        "results_match": false,
        "tensorflow_error": null,
        "paddle_error": "linear() missing 1 required positional argument: 'x'",
        "comparison_error": null,
        "tensorflow_shape": [
          2,
          64
        ],
        "paddle_shape": null,
        "tensorflow_dtype": "<dtype: 'float32'>",
        "paddle_dtype": null,
        "status": "paddle_failed",
        "paddle_traceback": "Traceback (most recent call last):\n  File \"D:\\graduate\\DFrameworkTest\\tf_pd_test\\llm_enhanced_compare.py\", line 769, in execute_test_case\n    paddle_instance = paddle_func(**init_kwargs)\nTypeError: linear() missing 1 required positional argument: 'x'\n"
      },
      "llm_operation": {
        "operation": "final_execution",
        "reason": "执行最后一次LLM生成的用例"
      },
      "case_number": 2,
      "is_llm_generated": true
    },
    {
      "iteration": 1,
      "tensorflow_test_case": {
        "weight": {
          "shape": [
            64,
            64
          ],
          "dtype": "float32",
          "sample_values": [
            -0.33934110403060913,
            1.1924898624420166,
            -1.4898558855056763,
            1.3391724824905396,
            0.18477153778076172,
            1.6433480978012085,
            0.2506410777568817,
            -0.027621446177363396,
            -0.5030720233917236,
            2.383373260498047
          ]
        },
        "bias": {
          "shape": [
            64
          ],
          "dtype": "float32",
          "sample_values": [
            -1.195570945739746,
            -0.024822557345032692,
            0.3864506483078003,
            1.081282377243042,
            -0.23761940002441406,
            -1.2559185028076172,
            -0.7947145104408264,
            1.3333035707473755,
            -0.6452136635780334,
            2.421215534210205
          ]
        },
        "api": "tf.keras.layers.Dense",
        "x": {
          "shape": [
            3,
            64
          ],
          "dtype": "float32",
          "sample_values": [
            0.4418509900569916,
            -0.2020815759897232,
            -0.4662766754627228,
            -1.2895331382751465,
            0.6599831581115723,
            0.07512903213500977,
            0.14160758256912231,
            0.3559648096561432,
            -0.49538668990135193,
            0.5290331840515137
          ]
        }
      },
      "paddle_test_case": {
        "input": {
          "shape": [
            3,
            64
          ],
          "dtype": "float32",
          "sample_values": [
            0.4418509900569916,
            -0.2020815759897232,
            -0.4662766754627228,
            -1.2895331382751465,
            0.6599831581115723,
            0.07512903213500977,
            0.14160758256912231,
            0.3559648096561432,
            -0.49538668990135193,
            0.5290331840515137
          ]
        },
        "weight": {
          "shape": [
            64,
            64
          ],
          "dtype": "float32",
          "sample_values": [
            -0.33934110403060913,
            1.1924898624420166,
            -1.4898558855056763,
            1.3391724824905396,
            0.18477153778076172,
            1.6433480978012085,
            0.2506410777568817,
            -0.027621446177363396,
            -0.5030720233917236,
            2.383373260498047
          ]
        },
        "bias": {
          "shape": [
            64
          ],
          "dtype": "float32",
          "sample_values": [
            -1.195570945739746,
            -0.024822557345032692,
            0.3864506483078003,
            1.081282377243042,
            -0.23761940002441406,
            -1.2559185028076172,
            -0.7947145104408264,
            1.3333035707473755,
            -0.6452136635780334,
            2.421215534210205
          ]
        },
        "api": "paddle.nn.functional.linear"
      },
      "execution_result": {
        "tensorflow_api": "tf.keras.layers.Dense",
        "paddle_api": "paddle.nn.functional.linear",
        "tensorflow_success": false,
        "paddle_success": false,
        "results_match": false,
        "tensorflow_error": "Dense.__init__() missing 1 required positional argument: 'units'",
        "paddle_error": "linear() missing 1 required positional argument: 'x'",
        "comparison_error": null,
        "tensorflow_shape": null,
        "paddle_shape": null,
        "tensorflow_dtype": null,
        "paddle_dtype": null,
        "status": "both_failed",
        "tensorflow_traceback": "Traceback (most recent call last):\n  File \"D:\\graduate\\DFrameworkTest\\tf_pd_test\\llm_enhanced_compare.py\", line 736, in execute_test_case\n    tensorflow_instance = tensorflow_func(**init_kwargs)\nTypeError: Dense.__init__() missing 1 required positional argument: 'units'\n",
        "paddle_traceback": "Traceback (most recent call last):\n  File \"D:\\graduate\\DFrameworkTest\\tf_pd_test\\llm_enhanced_compare.py\", line 769, in execute_test_case\n    paddle_instance = paddle_func(**init_kwargs)\nTypeError: linear() missing 1 required positional argument: 'x'\n"
      },
      "llm_operation": {
        "operation": "repair",
        "reason": "TensorFlow Dense requires 'units' argument; Paddle linear requires 'x' as first arg. Both test cases miss required positional args per their API signatures."
      },
      "is_llm_generated": false,
      "case_number": 3
    },
    {
      "iteration": 2,
      "tensorflow_test_case": {
        "api": "tf.keras.layers.Dense",
        "units": 64,
        "use_bias": true,
        "activation": "linear",
        "input_shape": [
          64
        ]
      },
      "paddle_test_case": {
        "api": "paddle.nn.functional.linear",
        "x": {
          "shape": [
            3,
            64
          ],
          "dtype": "float32",
          "sample_values": [
            0.28679659962654114,
            0.40753480792045593,
            -0.5116652846336365,
            0.2719920575618744,
            -0.34638938307762146,
            0.3850186765193939,
            -0.3521895408630371,
            1.3180913925170898,
            0.19382032752037048,
            -0.4287894368171692
          ]
        },
        "weight": {
          "shape": [
            64,
            64
          ],
          "dtype": "float32",
          "sample_values": [
            -0.13983899354934692,
            1.267998218536377,
            0.27434420585632324,
            0.43000632524490356,
            -0.3023540675640106,
            -0.6132965087890625,
            -0.46245425939559937,
            -0.5037533640861511,
            1.3515130281448364,
            -0.9521808624267578
          ]
        },
        "bias": {
          "shape": [
            64
          ],
          "dtype": "float32",
          "sample_values": [
            -0.6397160291671753,
            -1.2048239707946777,
            0.4349935054779053,
            1.9738271236419678,
            0.1606045961380005,
            -0.5595009326934814,
            0.22601938247680664,
            -0.0701109915971756,
            1.2228351831436157,
            -1.380122423171997
          ]
        }
      },
      "execution_result": {
        "tensorflow_api": "tf.keras.layers.Dense",
        "paddle_api": "paddle.nn.functional.linear",
        "tensorflow_success": true,
        "paddle_success": false,
        "results_match": false,
        "tensorflow_error": null,
        "paddle_error": "linear() missing 1 required positional argument: 'x'",
        "comparison_error": null,
        "tensorflow_shape": [
          2,
          64
        ],
        "paddle_shape": null,
        "tensorflow_dtype": "<dtype: 'float32'>",
        "paddle_dtype": null,
        "status": "paddle_failed",
        "paddle_traceback": "Traceback (most recent call last):\n  File \"D:\\graduate\\DFrameworkTest\\tf_pd_test\\llm_enhanced_compare.py\", line 769, in execute_test_case\n    paddle_instance = paddle_func(**init_kwargs)\nTypeError: linear() missing 1 required positional argument: 'x'\n"
      },
      "llm_operation": {
        "operation": "repair",
        "reason": "PaddlePaddle linear() requires 'x' as first positional argument, but test case passes it as keyword; must fix to match signature: linear(x, weight, bias). Also TF Dense is a layer class requiring build+call, while paddle.nn.functional.linear is a function — need consistent functional usage or layer wrapper."
      },
      "is_llm_generated": true,
      "case_number": 3
    },
    {
      "iteration": 3,
      "tensorflow_test_case": {
        "api": "tf.keras.layers.Dense",
        "units": 64,
        "use_bias": true,
        "activation": "linear"
      },
      "paddle_test_case": {
        "api": "paddle.nn.functional.linear",
        "x": {
          "shape": [
            3,
            64
          ],
          "dtype": "float32",
          "sample_values": [
            0.30377763509750366,
            -0.23311211168766022,
            0.48621881008148193,
            -0.8597546219825745,
            2.084937810897827,
            -0.5725409388542175,
            0.2625567615032196,
            0.47150593996047974,
            -1.7677150964736938,
            -0.17349773645401
          ]
        },
        "weight": {
          "shape": [
            64,
            64
          ],
          "dtype": "float32",
          "sample_values": [
            1.3389924764633179,
            1.1316916942596436,
            0.8653866648674011,
            1.7152477502822876,
            -0.24329683184623718,
            -0.6508135795593262,
            -1.1717636585235596,
            -0.9306674599647522,
            -0.11285507678985596,
            -0.27054712176322937
          ]
        },
        "bias": {
          "shape": [
            64
          ],
          "dtype": "float32",
          "sample_values": [
            0.8574724793434143,
            0.4771959185600281,
            -0.4846552014350891,
            1.1704868078231812,
            0.884243369102478,
            -1.680651068687439,
            1.363978624343872,
            0.899450957775116,
            0.19152452051639557,
            -0.49995967745780945
          ]
        }
      },
      "execution_result": {
        "tensorflow_api": "tf.keras.layers.Dense",
        "paddle_api": "paddle.nn.functional.linear",
        "tensorflow_success": true,
        "paddle_success": false,
        "results_match": false,
        "tensorflow_error": null,
        "paddle_error": "linear() missing 1 required positional argument: 'x'",
        "comparison_error": null,
        "tensorflow_shape": [
          2,
          64
        ],
        "paddle_shape": null,
        "tensorflow_dtype": "<dtype: 'float32'>",
        "paddle_dtype": null,
        "status": "paddle_failed",
        "paddle_traceback": "Traceback (most recent call last):\n  File \"D:\\graduate\\DFrameworkTest\\tf_pd_test\\llm_enhanced_compare.py\", line 769, in execute_test_case\n    paddle_instance = paddle_func(**init_kwargs)\nTypeError: linear() missing 1 required positional argument: 'x'\n"
      },
      "llm_operation": {
        "operation": "repair",
        "reason": "Paddle's linear requires explicit 'x' tensor input, but the test case only defines shape/dtype without actual tensor generation; TF Dense is a layer class, not function call — need aligned instantiation vs functional usage."
      },
      "is_llm_generated": true,
      "case_number": 3
    },
    {
      "iteration": 4,
      "tensorflow_test_case": {
        "api": "tf.keras.layers.Dense",
        "units": 64,
        "use_bias": true,
        "activation": "linear"
      },
      "paddle_test_case": {
        "api": "paddle.nn.functional.linear",
        "x": {
          "shape": [
            3,
            64
          ],
          "dtype": "float32",
          "sample_values": [
            0.7910632491111755,
            -0.04173959046602249,
            0.23570649325847626,
            1.151249647140503,
            -1.1538770198822021,
            0.06584049016237259,
            3.3380279541015625,
            -0.8205517530441284,
            0.8583455681800842,
            0.4068651795387268
          ]
        },
        "weight": {
          "shape": [
            64,
            64
          ],
          "dtype": "float32",
          "sample_values": [
            -0.8517400026321411,
            1.960129976272583,
            0.5732826590538025,
            0.014273200184106827,
            1.717124104499817,
            2.428643226623535,
            0.3346744179725647,
            -0.5068772435188293,
            0.7221617698669434,
            -1.4535105228424072
          ]
        },
        "bias": {
          "shape": [
            64
          ],
          "dtype": "float32",
          "sample_values": [
            -1.318849802017212,
            -1.8904296159744263,
            1.8526525497436523,
            2.064899206161499,
            -0.5325626134872437,
            0.28924840688705444,
            -0.29067477583885193,
            1.5857293605804443,
            -0.3389580547809601,
            0.016777800396084785
          ]
        }
      },
      "execution_result": {
        "tensorflow_api": "tf.keras.layers.Dense",
        "paddle_api": "paddle.nn.functional.linear",
        "tensorflow_success": true,
        "paddle_success": false,
        "results_match": false,
        "tensorflow_error": null,
        "paddle_error": "linear() missing 1 required positional argument: 'x'",
        "comparison_error": null,
        "tensorflow_shape": [
          2,
          64
        ],
        "paddle_shape": null,
        "tensorflow_dtype": "<dtype: 'float32'>",
        "paddle_dtype": null,
        "status": "paddle_failed",
        "paddle_traceback": "Traceback (most recent call last):\n  File \"D:\\graduate\\DFrameworkTest\\tf_pd_test\\llm_enhanced_compare.py\", line 769, in execute_test_case\n    paddle_instance = paddle_func(**init_kwargs)\nTypeError: linear() missing 1 required positional argument: 'x'\n"
      },
      "llm_operation": {
        "operation": "final_execution",
        "reason": "执行最后一次LLM生成的用例"
      },
      "case_number": 3,
      "is_llm_generated": true
    }
  ]
}